[array([[ 0.03983548,  1.0562425 , -0.37041017, -1.6856599 ,  1.3250912 ,
        -0.1699846 , -0.10818978, -2.1580853 ,  0.37628698,  0.1325193 ,
         1.5347764 ,  0.9471581 ,  0.71690863, -0.41825813, -1.7326142 ,
        -0.27664497,  0.07928184,  0.1323242 , -2.349721  ,  0.22953364],
       [-0.19008674,  0.28248796,  0.17831239, -1.1755137 ,  0.34597546,
        -0.3368944 , -0.13341969, -1.9043522 , -0.58399945,  0.235329  ,
         0.28604916,  0.3896043 ,  0.17204511, -0.30707133, -1.9693731 ,
        -0.75079024,  0.2682769 ,  0.14092854, -2.3142462 ,  0.21469563],
       [ 0.39801377, -0.05259577, -0.22585209, -1.0535734 , -0.12224987,
         0.21358286,  0.39944422, -2.5316346 ,  0.3421586 , -0.08127563,
         0.89339626,  0.05378184, -0.26133487, -0.24046746, -3.1457934 ,
        -0.35147822, -0.1897573 ,  0.15694965, -3.0183208 ,  0.1129661 ],
       [ 0.65679425,  0.6342532 ,  0.19271557, -1.38057   ,  0.8260276 ,
         0.58335197,  0.432852  , -1.986775  , -0.20794171,  0.57358694,
         1.4181759 ,  0.39740953,  0.9242595 ,  0.17769384, -2.0797005 ,
        -0.791784  ,  0.21412952, -0.3567095 , -2.2180061 ,  0.5853613 ],
       [ 0.10106465, -0.5046693 ,  0.27301323, -0.68698144,  0.4750109 ,
        -0.5399038 , -0.8477391 , -0.32733342, -0.49599364,  0.45735574,
         0.28537136,  0.90696996,  0.16588637,  0.25170255, -0.4842736 ,
        -0.23390806,  0.0860359 ,  0.19785158, -0.70377433,  0.20716295],
       [ 0.805076  ,  1.1267923 ,  0.15559597, -0.08371958,  1.9380738 ,
         1.2038736 ,  0.6844209 , -1.2548157 , -0.22260228,  0.08943988,
         0.34629402, -0.02351895, -0.05745406,  0.0228856 , -0.77372867,
         0.47378612, -0.36588448, -0.40460274, -0.9089696 ,  0.9677938 ],
       [ 1.2117459 ,  0.65556175,  0.02208659, -0.135018  ,  1.5213559 ,
         0.39389592,  1.2961097 , -0.21560067,  0.42025882, -0.23748018,
        -0.17417113, -0.06395014,  0.25146547,  0.3634326 , -0.5501357 ,
        -0.28625643, -0.5980993 ,  0.28701606, -1.0364273 ,  2.0519202 ],
       [-0.7892599 , -0.14233202, -0.04858401, -1.7023852 , -1.212477  ,
        -0.5710223 , -1.0674875 , -1.1480718 , -0.1846146 ,  0.56740576,
         0.94051284,  0.5997257 ,  0.35703433, -0.52384245, -1.56733   ,
        -0.6197419 , -0.05003843,  0.57584053, -1.4669217 , -0.546394  ],
       [ 0.5477212 ,  0.93356454,  1.2797934 ,  0.04399025,  0.91114044,
         0.329106  , -0.12533914,  1.2186351 , -0.16086626, -0.8155809 ,
        -0.68165743, -1.6148345 , -1.3050293 , -0.01805624,  1.8261732 ,
         0.63451576, -0.04349026,  1.2677277 ,  1.677813  ,  1.3535334 ],
       [-0.44248587, -0.43453968, -0.01062278,  0.0541323 , -0.0698532 ,
        -0.2514428 , -0.1384674 ,  0.0803594 , -0.00509698,  0.22331257,
         0.37137216, -0.02417127,  0.2020214 , -0.44568577,  0.21962051,
        -0.00731243,  0.11756346, -0.00926753,  0.16577908, -0.76951253]],
      dtype=float32), array([ 2.481702  ,  2.6638477 ,  1.0969055 , -0.08114123,  4.07218   ,
        2.0978785 ,  2.6513345 , -0.8059547 ,  0.33051503, -2.2554367 ,
       -0.9162747 , -1.9209218 , -0.8851969 ,  0.5673752 , -0.9498578 ,
       -0.41985568, -0.81955874,  0.7913053 , -1.2042016 ,  3.3543346 ],
      dtype=float32), array([[-0.4401269 , -0.71726316, -0.42448148, -0.32249707,  0.5154405 ,
         0.25377995, -0.15051444, -0.12519644, -0.35467568,  0.24799885,
         0.4255081 ,  0.09922271, -0.03685502, -0.57795304,  0.12308695],
       [-0.296207  , -0.27543762, -0.14221752, -0.20481518,  0.72454536,
         0.11083955, -0.5279861 , -0.08594572, -0.37274593,  0.1805293 ,
         0.7097653 ,  1.0293008 ,  0.30701515, -0.18705365,  0.5345133 ],
       [-0.15127292,  0.04122804,  0.22275664, -0.03094539,  0.07972801,
         0.37456504, -0.15080038, -0.48015448,  0.07411341,  0.53453785,
        -0.05637876, -0.08944186,  0.48610333, -0.01836722,  0.25146535],
       [-0.83020365, -0.40543413, -0.30875266, -0.18854618,  0.38858923,
         0.3734403 , -0.41981757, -0.36901063, -0.5313447 ,  0.28581733,
         0.3370082 ,  0.5821419 ,  0.09726787, -0.69460213,  0.3640158 ],
       [-0.55233216, -0.48058355, -0.16706443, -0.41360238,  0.71794224,
         0.6957716 , -0.22227062, -0.8319402 , -0.5556028 ,  0.04320423,
         0.42001864,  0.7867306 ,  0.5931918 , -0.76321816,  0.4779792 ],
       [-0.22569051, -0.6630736 , -0.46392304, -0.655809  ,  0.56196004,
        -0.08480395,  0.24180669,  0.20850304, -0.15429261,  0.43198496,
         0.4342396 ,  0.41471186,  0.29206553, -0.2495001 ,  0.15129955],
       [-0.0758903 , -0.6759079 , -0.40943342, -0.7575907 ,  0.48233   ,
        -0.01430075, -0.20023602, -0.12798287, -0.0405402 ,  0.18552464,
         0.51616293,  0.8398912 ,  0.26347098, -0.39099565,  0.0908117 ],
       [-0.42572224, -0.46679875, -0.6946607 , -1.045065  ,  0.27340123,
         1.1750078 , -0.3910553 , -0.13483575, -0.44715   ,  0.4411793 ,
         0.7868409 ,  0.18374312,  0.43330774, -0.8163798 , -0.21582823],
       [-0.6315296 , -0.3309005 , -0.06672366, -0.6273271 , -0.31401676,
        -0.20400943,  0.1798778 , -0.1871855 , -0.16637006,  0.07225272,
         0.14717184,  0.5000114 , -0.1797201 , -0.3710338 , -0.21166725],
       [ 0.20414864,  0.27507594, -0.39684075,  0.0076765 ,  0.13640566,
        -0.40349025,  0.35586578,  0.09173436, -0.03085988,  0.14092039,
        -0.06240401,  0.25560182, -0.31881362,  0.3037603 , -0.12745331],
       [ 0.29583627,  0.2531449 , -0.28273883,  0.30279002,  0.46086958,
         0.03688551, -0.20171493, -0.35735133, -0.21928953,  0.47874644,
        -0.21654141, -0.2881331 ,  0.3073849 , -0.08643274,  0.3524982 ],
       [ 0.2048827 ,  0.05011371,  0.0985625 ,  0.11034578,  0.26447257,
        -0.21924527, -0.1587305 ,  0.09254635, -0.1654039 ,  0.39790002,
        -0.0556648 , -0.08305621,  0.04322325,  0.00327446,  0.14656031],
       [-0.342077  ,  0.05464264,  0.04229739,  0.06119991,  0.405639  ,
        -0.20349087,  0.4038794 ,  0.3192912 ,  0.266643  ,  0.02126363,
        -0.35729927, -0.16046563, -0.3383375 , -0.09327544,  0.26225445],
       [-0.50797987, -0.34287852,  0.23919818, -0.4645032 ,  0.23918433,
         0.6009745 , -0.53137195, -0.5557602 , -0.3729204 ,  0.25733802,
         0.42391732,  0.5303124 ,  0.3696804 , -0.5354964 ,  0.07828531],
       [-0.6306556 , -0.64255524, -0.686941  , -0.5301407 , -0.2342547 ,
         0.1528649 ,  0.39592537, -0.06514377,  0.00938198,  0.48230106,
         0.65635186,  0.20506677,  0.46047205, -0.6233886 ,  0.30429244],
       [-0.16350786, -0.43017876, -0.19223861,  0.03168754, -0.02577694,
         0.67476267, -0.25696105, -0.02261613, -0.05012459,  0.08948757,
         0.12785849, -0.20372912,  0.18447652, -0.4549403 , -0.30536246],
       [ 0.16823697, -0.06429254, -0.05858566,  0.22914529,  0.21361302,
         0.02907075, -0.29112622, -0.07890121, -0.05898321, -0.05397856,
         0.16514511, -0.34668958, -0.34074855, -0.10247207,  0.3504166 ],
       [-0.23374201, -0.1933526 , -0.23317632,  0.06046664,  0.25274876,
         0.20475939,  0.21671277,  0.3240531 ,  0.19824511,  0.29260045,
        -0.10035118,  0.42342764,  0.00142888, -0.04031116, -0.25805086],
       [-0.57834405, -0.60105735, -0.19935831, -0.5010113 ,  0.3399391 ,
         0.3894144 ,  0.72250783,  0.09891591, -0.13435458, -0.22971703,
         0.80814457,  0.22825916,  0.30298847,  0.15439785, -0.23253518],
       [-0.51698786, -0.7548163 , -0.7162695 , -0.60712725,  0.26420552,
         0.27857676, -0.42453423, -0.49644315, -0.596296  ,  0.5499258 ,
         0.40123084,  0.23992996,  0.49777225, -0.18465334,  0.39906073]],
      dtype=float32), array([-1.1515957 , -1.8736457 , -0.29311836, -0.69712883,  0.3076238 ,
        1.0945082 , -0.9123878 , -0.8266404 , -1.1408632 ,  0.38482532,
        0.47900513,  1.3298913 ,  1.4793788 , -1.2345239 ,  0.3608133 ],
      dtype=float32), array([[-1.2659235 ],
       [-0.8583825 ],
       [-0.21875124],
       [-1.4743012 ],
       [ 0.2245326 ],
       [ 1.0933121 ],
       [-0.42169246],
       [-0.58451223],
       [-0.62704295],
       [ 0.17894362],
       [ 0.7417391 ],
       [ 0.88192606],
       [ 0.72563475],
       [-1.0870123 ],
       [ 0.19133987]], 
      dtype=float32), array([-0.37299243], 
      dtype=float32)]